<?xml version="1.0" encoding="UTF-8"?>
<BIF VERSION="0.3"  xmlns="http://www.cs.ubc.ca/labs/lci/fopi/ve/XMLBIFv0_3"
	xmlns:xsi="http://www.w3.org/2001/XMLSchema-instance"
	xsi:schemaLocation="http://www.cs.ubc.ca/labs/lci/fopi/ve/XMLBIFv0_3 http://www.cs.ubc.ca/labs/lci/fopi/ve/XMLBIFv0_3/XMLBIFv0_3.xsd">
<NETWORK>
<NAME>Untitled</NAME>
<PROPERTY>detailed = </PROPERTY>
<PROPERTY>short = </PROPERTY>

<VARIABLE TYPE="nature">
	<NAME>Maintenance</NAME>
	<OUTCOME>T</OUTCOME>
	<OUTCOME>F</OUTCOME>
	<PROPERTY>position = (7772.0048828125, 5050.5)</PROPERTY>
</VARIABLE>

<VARIABLE TYPE="nature">
	<NAME>Maintenance Info</NAME>
	<OUTCOME>Outdated</OUTCOME>
	<OUTCOME>Updated</OUTCOME>
	<PROPERTY>position = (8020.48779296875, 5065.7578125)</PROPERTY>
</VARIABLE>

<VARIABLE TYPE="nature">
	<NAME>Blocked</NAME>
	<OUTCOME>T</OUTCOME>
	<OUTCOME>F</OUTCOME>
	<PROPERTY>position = (8057.31494140625, 5287.93896484375)</PROPERTY>
</VARIABLE>

<VARIABLE TYPE="nature">
	<NAME>Holiday</NAME>
	<OUTCOME>T</OUTCOME>
	<OUTCOME>F</OUTCOME>
	<PROPERTY>position = (7255.423828125, 5198.7177734375)</PROPERTY>
</VARIABLE>

<VARIABLE TYPE="nature">
	<NAME>DDoS Risk</NAME>
	<OUTCOME>High</OUTCOME>
	<OUTCOME>Low</OUTCOME>
	<PROPERTY>position = (7382.9345703125, 5313.14990234375)</PROPERTY>
</VARIABLE>

<VARIABLE TYPE="nature">
	<NAME>ClientActivity</NAME>
	<OUTCOME>Risky</OUTCOME>
	<OUTCOME>OK</OUTCOME>
	<PROPERTY>position = (7494.09716796875, 5070.1171875)</PROPERTY>
</VARIABLE>

<VARIABLE TYPE="nature">
	<NAME>Logged</NAME>
	<OUTCOME>T</OUTCOME>
	<OUTCOME>F</OUTCOME>
	<PROPERTY>position = (7584.5537109375, 5230.3232421875)</PROPERTY>
</VARIABLE>

<VARIABLE TYPE="nature">
	<NAME>Alert</NAME>
	<OUTCOME>T</OUTCOME>
	<OUTCOME>F</OUTCOME>
	<PROPERTY>position = (7715.33349609375, 5511.5)</PROPERTY>
</VARIABLE>

<VARIABLE TYPE="nature">
	<NAME>Firewall</NAME>
	<OUTCOME>T</OUTCOME>
	<OUTCOME>F</OUTCOME>
	<PROPERTY>position = (7852.6533203125, 5223.78271484375)</PROPERTY>
</VARIABLE>

<VARIABLE TYPE="nature">
	<NAME>Website</NAME>
	<OUTCOME>Risky</OUTCOME>
	<OUTCOME>OK</OUTCOME>
	<PROPERTY>position = (8153.57666015625, 5161.94775390625)</PROPERTY>
</VARIABLE>

<DEFINITION>
	<FOR>Maintenance</FOR>
	<TABLE>0.1 0.9</TABLE>
</DEFINITION>

<DEFINITION>
	<FOR>Maintenance Info</FOR>
	<TABLE>0.02 0.98</TABLE>
</DEFINITION>

<DEFINITION>
	<FOR>Blocked</FOR>
	<GIVEN>Website</GIVEN>
	<TABLE>0.85 0.15 0.05 0.95</TABLE>
</DEFINITION>

<DEFINITION>
	<FOR>Holiday</FOR>
	<TABLE>0.125 0.875</TABLE>
</DEFINITION>

<DEFINITION>
	<FOR>DDoS Risk</FOR>
	<GIVEN>Holiday</GIVEN>
	<TABLE>0.15 0.85 0.05 0.95</TABLE>
</DEFINITION>

<DEFINITION>
	<FOR>ClientActivity</FOR>
	<TABLE>0.05 0.95</TABLE>
</DEFINITION>

<DEFINITION>
	<FOR>Logged</FOR>
	<GIVEN>ClientActivity</GIVEN>
	<TABLE>0.7 0.3 0.3 0.7</TABLE>
</DEFINITION>

<DEFINITION>
	<FOR>Alert</FOR>
	<GIVEN>Blocked</GIVEN>
	<GIVEN>DDoS Risk</GIVEN>
	<GIVEN>Logged</GIVEN>
	<GIVEN>Firewall</GIVEN>
	<TABLE>0.95 0.05 0.7125 0.2875 0.7125 0.2875 0.475 0.525 0.7125 0.2875 0.475 0.525 0.475 0.525 0.2375 0.7625 0.7125 0.2875 0.475 0.525 0.475 0.525 0.2375 0.7625 0.475 0.525 0.2375 0.7625 0.2375 0.7625 0.0 1.0</TABLE>
</DEFINITION>

<DEFINITION>
	<FOR>Firewall</FOR>
	<GIVEN>Maintenance</GIVEN>
	<GIVEN>Maintenance Info</GIVEN>
	<TABLE>0.5 0.5 0.03 0.97 0.5 0.5 0.99 0.01</TABLE>
</DEFINITION>

<DEFINITION>
	<FOR>Website</FOR>
	<TABLE>0.05 0.95</TABLE>
</DEFINITION>
</NETWORK>
</BIF>
