<?xml version="1.0" encoding="UTF-8"?>
<BIF VERSION="0.3"  xmlns="http://www.cs.ubc.ca/labs/lci/fopi/ve/XMLBIFv0_3"
	xmlns:xsi="http://www.w3.org/2001/XMLSchema-instance"
	xsi:schemaLocation="http://www.cs.ubc.ca/labs/lci/fopi/ve/XMLBIFv0_3 http://www.cs.ubc.ca/labs/lci/fopi/ve/XMLBIFv0_3/XMLBIFv0_3.xsd">
<NETWORK>
<NAME>Untitled</NAME>
<PROPERTY>detailed = </PROPERTY>
<PROPERTY>short = </PROPERTY>

<VARIABLE TYPE="nature">
	<NAME>Maintenance (Mai)</NAME>
	<OUTCOME>T</OUTCOME>
	<OUTCOME>F</OUTCOME>
	<PROPERTY>position = (7448.22705078125, 5079.95751953125)</PROPERTY>
</VARIABLE>

<VARIABLE TYPE="nature">
	<NAME>Maintenance Info (M_I)</NAME>
	<OUTCOME>Outdated</OUTCOME>
	<OUTCOME>Updated</OUTCOME>
	<PROPERTY>position = (7630.90771484375, 5121.36669921875)</PROPERTY>
</VARIABLE>

<VARIABLE TYPE="nature">
	<NAME>Blocked (Blo)</NAME>
	<OUTCOME>T</OUTCOME>
	<OUTCOME>F</OUTCOME>
	<PROPERTY>position = (7594.38623046875, 5340.63671875)</PROPERTY>
</VARIABLE>

<VARIABLE TYPE="nature">
	<NAME>Holiday (Hol)</NAME>
	<OUTCOME>T</OUTCOME>
	<OUTCOME>F</OUTCOME>
	<PROPERTY>position = (7075.25048828125, 5190.74755859375)</PROPERTY>
</VARIABLE>

<VARIABLE TYPE="nature">
	<NAME>DDoS Risk (D_R)</NAME>
	<OUTCOME>High</OUTCOME>
	<OUTCOME>Low</OUTCOME>
	<PROPERTY>position = (7153.28662109375, 5323.2666015625)</PROPERTY>
</VARIABLE>

<VARIABLE TYPE="nature">
	<NAME>Client Activity (C_A)</NAME>
	<OUTCOME>Risky</OUTCOME>
	<OUTCOME>OK</OUTCOME>
	<PROPERTY>position = (7277.564453125, 5138.267578125)</PROPERTY>
</VARIABLE>

<VARIABLE TYPE="nature">
	<NAME>Logged (Log)</NAME>
	<OUTCOME>T</OUTCOME>
	<OUTCOME>F</OUTCOME>
	<PROPERTY>position = (7308.26025390625, 5272.08837890625)</PROPERTY>
</VARIABLE>

<VARIABLE TYPE="nature">
	<NAME>Alert (Ale)</NAME>
	<OUTCOME>T</OUTCOME>
	<OUTCOME>F</OUTCOME>
	<PROPERTY>position = (7350.181640625, 5418.04248046875)</PROPERTY>
</VARIABLE>

<VARIABLE TYPE="nature">
	<NAME>Firewall (Fir)</NAME>
	<OUTCOME>T</OUTCOME>
	<OUTCOME>F</OUTCOME>
	<PROPERTY>position = (7474.47998046875, 5255.60791015625)</PROPERTY>
</VARIABLE>

<VARIABLE TYPE="nature">
	<NAME>Website (Web)</NAME>
	<OUTCOME>Risky</OUTCOME>
	<OUTCOME>OK</OUTCOME>
	<PROPERTY>position = (7706.75, 5250.134765625)</PROPERTY>
</VARIABLE>

<DEFINITION>
	<FOR>Maintenance (Mai)</FOR>
	<TABLE>0.1 0.9</TABLE>
</DEFINITION>

<DEFINITION>
	<FOR>Maintenance Info (M_I)</FOR>
	<TABLE>0.02 0.98</TABLE>
</DEFINITION>

<DEFINITION>
	<FOR>Blocked (Blo)</FOR>
	<GIVEN>Website (Web)</GIVEN>
	<TABLE>0.85 0.15 0.05 0.95</TABLE>
</DEFINITION>

<DEFINITION>
	<FOR>Holiday (Hol)</FOR>
	<TABLE>0.125 0.875</TABLE>
</DEFINITION>

<DEFINITION>
	<FOR>DDoS Risk (D_R)</FOR>
	<GIVEN>Holiday (Hol)</GIVEN>
	<TABLE>0.15 0.85 0.05 0.95</TABLE>
</DEFINITION>

<DEFINITION>
	<FOR>Client Activity (C_A)</FOR>
	<TABLE>0.05 0.95</TABLE>
</DEFINITION>

<DEFINITION>
	<FOR>Logged (Log)</FOR>
	<GIVEN>Client Activity (C_A)</GIVEN>
	<TABLE>0.7 0.3 0.3 0.7</TABLE>
</DEFINITION>

<DEFINITION>
	<FOR>Alert (Ale)</FOR>
	<GIVEN>Blocked (Blo)</GIVEN>
	<GIVEN>DDoS Risk (D_R)</GIVEN>
	<GIVEN>Logged (Log)</GIVEN>
	<GIVEN>Firewall (Fir)</GIVEN>
	<TABLE>0.95 0.05 0.7125 0.2875 0.7125 0.2875 0.475 0.525 0.7125 0.2875 0.475 0.525 0.475 0.525 0.2375 0.7625 0.7125 0.2875 0.475 0.525 0.475 0.525 0.2375 0.7625 0.475 0.525 0.2375 0.7625 0.2375 0.7625 0.0 1.0</TABLE>
</DEFINITION>

<DEFINITION>
	<FOR>Firewall (Fir)</FOR>
	<GIVEN>Maintenance (Mai)</GIVEN>
	<GIVEN>Maintenance Info (M_I)</GIVEN>
	<TABLE>0.5 0.5 0.03 0.97 0.5 0.5 0.99 0.01</TABLE>
</DEFINITION>

<DEFINITION>
	<FOR>Website (Web)</FOR>
	<TABLE>0.05 0.95</TABLE>
</DEFINITION>
</NETWORK>
</BIF>
